<?xml version="1.0"?>
<opencv_storage>
<cascade>
  <stageType>BOOST</stageType>
  <featureType>LBP</featureType>
  <height>24</height>
  <width>24</width>
  <stageParams>
    <boostType>GAB</boostType>
    <minHitRate>9.9500000476837158e-01</minHitRate>
    <maxFalseAlarm>5.0000000000000000e-01</maxFalseAlarm>
    <weightTrimRate>9.4999998807907104e-01</weightTrimRate>
    <maxDepth>1</maxDepth>
    <maxWeakCount>100</maxWeakCount></stageParams>
  <featureParams>
    <maxCatCount>256</maxCatCount>
    <featSize>1</featSize></featureParams>
  <stageNum>20</stageNum>
  <stages>
    <!-- stage 0 -->
    <_>
      <maxWeakCount>4</maxWeakCount>
      <stageThreshold>-1.8708237409591675e+00</stageThreshold>
      <weakClassifiers>
        <_>
          <internalNodes>
            0 -1 86 -175317804 -716123752 -1186724451 -46148641
            -353246213 -742670197 -6029889 -3073</internalNodes>
          <leafValues>
            -9.3057537078857422e-01 5.1710259914398193e-01</leafValues></_>
        <_>
          <internalNodes>
            0 -1 20 -791160582 -10501658 -14802947 -541106213 1434696702
            -91127590 985224191 -1281</internalNodes>
          <leafValues>
            -8.2006341218948364e-01 6.9240915775299072e-01</leafValues></_>
        <_>
          <internalNodes>
            0 -1 26 -121440270 -774857742 -133105412 -2178593 -937233966
            -73355104 -607925633 -537922593</internalNodes>
          <leafValues>
            -7.5847315788269043e-01 6.1938196420669556e-01</leafValues></_>
        <_>
          <internalNodes>
            0 -1 3 13709312 1943261203 270587381 1998295071 -1861042433
            -38164327 -1011840289 -741098525</internalNodes>
          <leafValues>
            -7.3045271635055542e-01 6.3828825950622559e-01</leafValues></_></weakClassifiers></_>
    <!-- stage 1 -->
    <_>
      <maxWeakCount>4</maxWeakCount>
      <stageThreshold>-1.8893710374832153e+00</stageThreshold>
      <weakClassifiers>
        <_>
          <internalNodes>
            0 -1 74 -2299940 -69422856 -208544035 -3176808 -627313684
            -40353555 -69354566 -5634</internalNodes>
          <leafValues>
            -8.7308835983276367e-01 5.1892554759979248e-01</leafValues></_>
        <_>
          <internalNodes>
            0 -1 9 -52956424 -241921582 -183902721 -38014499 -804847633
            1891812257 -358890529 -2110469</internalNodes>
          <leafValues>
            -8.2474613189697266e-01 5.7986783981323242e-01</leafValues></_>
        <_>
          <internalNodes>
            0 -1 31 -201392152 -33820194 -778513930 -2632234 849247676
            -1145456213 2146336574 -1</internalNodes>
          <leafValues>
            -7.6235729455947876e-01 5.8848243951797485e-01</leafValues></_>
        <_>
          <internalNodes>
            0 -1 40 -525941204 -19467817 -1501274146 -51715326 -91954959
            -124026749 -286659710 -16848166</internalNodes>
          <leafValues>
            -7.6640135049819946e-01 5.7082074880599976e-01</leafValues></_></weakClassifiers></_>
    <!-- stage 2 -->
    <_>
      <maxWeakCount>4</maxWeakCount>
      <stageThreshold>-1.7676062583923340e+00</stageThreshold>
      <weakClassifiers>
        <_>
          <internalNodes>
            0 -1 56 -69207041 -11817 -113010469 -69492085 -94655553
            -7618325 -73684293 -67130709</internalNodes>
          <leafValues>
            -8.2411408424377441e-01 7.2377622127532959e-01</leafValues></_>
        <_>
          <internalNodes>
            0 -1 11 -10494465 -134352491 201785384 -1618758677
            -763246085 -1324121687 -83113845 1472816079</internalNodes>
          <leafValues>
            -7.5101083517074585e-01 5.1964932680130005e-01</leafValues></_>
        <_>
          <internalNodes>
            0 -1 98 -994589632 -153947499 833126468 -1375735184
            -151396352 -83113081 -81264874 -1029</internalNodes>
          <leafValues>
            -8.1176769733428955e-01 5.0828528404235840e-01</leafValues></_>
        <_>
          <internalNodes>
            0 -1 67 -621089840 -23145577 -123025922 -1087442530
            -85010688 -106124502 -1142638084 -17669</internalNodes>
          <leafValues>
            -6.5137374401092529e-01 6.7218804359436035e-01</leafValues></_></weakClassifiers></_>
    <!-- stage 3 -->
    <_>
      <maxWeakCount>4</maxWeakCount>
      <stageThreshold>-1.8279199600219727e+00</stageThreshold>
      <weakClassifiers>
        <_>
          <internalNodes>
            0 -1 83 -10795 -2650177 -41812041 -3159137 -68158979
            -7342129 -70521857 -1</internalNodes>
          <leafValues>
            -8.2732862234115601e-01 5.6481480598449707e-01</leafValues></_>
        <_>
          <internalNodes>
            0 -1 8 -136316929 -69471905 153422095 1059917131 1910144767
            1945102489 1506487055 2141192011</internalNodes>
          <leafValues>
            -7.7528613805770874e-01 3.8342037796974182e-01</leafValues></_>
        <_>
          <internalNodes>
            0 -1 88 -6298160 -683396575 -139337568 -134897504 -270663952
            -177904061 -259788126 -268438541</internalNodes>
          <leafValues>
            -6.2860554456710815e-01 5.8272224664688110e-01</leafValues></_>
        <_>
          <internalNodes>
            0 -1 50 -890441876 -168801097 -1148546596 -135268353
            1399612244 -508380997 -873313416 -2</internalNodes>
          <leafValues>
            -8.0802738666534424e-01 4.3004193902015686e-01</leafValues></_></weakClassifiers></_>
    <!-- stage 4 -->
    <_>
      <maxWeakCount>5</maxWeakCount>
      <stageThreshold>-2.2789249420166016e+00</stageThreshold>
      <weakClassifiers>
        <_>
          <internalNodes>
            0 -1 18 -318767105 -2049 -585105921 -1 -995364865 -67116565
            -873725953 -1</internalNodes>
          <leafValues>
            -8.1458967924118042e-01 5.9259259700775146e-01</leafValues></_>
        <_>
          <internalNodes>
            0 -1 65 1438632959 2067775487 -9671809 2145339995 1843392443
            2147474427 721357499 267322043</internalNodes>
          <leafValues>
            -7.7747464179992676e-01 2.8854599595069885e-01</leafValues></_>
        <_>
          <internalNodes>
            0 -1 4 -67108865 -33 1843790346 -37227538 -134742529
            -169476097 -10617141 -2228273</internalNodes>
          <leafValues>
            -5.3802871704101563e-01 6.0987311601638794e-01</leafValues></_>
        <_>
          <internalNodes>
            0 -1 93 -1090571241 -41992905 2073132795 -73404556 -75499696
            2138298455 -1837071 -77136029</internalNodes>
          <leafValues>
            -6.1614847183227539e-01 5.1831239461898804e-01</leafValues></_>
        <_>
          <internalNodes>
            0 -1 30 -89735430 -16862210 -16790531 -9111585 923987450
            -6381634 2130143079 -589826</internalNodes>
          <leafValues>
            -6.7192143201828003e-01 4.6731647849082947e-01</leafValues></_></weakClassifiers></_>
    <!-- stage 5 -->
    <_>
      <maxWeakCount>5</maxWeakCount>
      <stageThreshold>-1.3520562648773193e+00</stageThreshold>
      <weakClassifiers>
        <_>
          <internalNodes>
            0 -1 64 -201 2136457047 -3407873 -134745153 -1111490561
            -5377 -67108865 -1</internalNodes>
          <leafValues>
            -8.2491135597229004e-01 4.6802327036857605e-01</leafValues></_>
        <_>
          <internalNodes>
            0 -1 53 -1 -1315841 -446105601 35712847 -8913537 -1841153
            -268649474 -100597765</internalNodes>
          <leafValues>
            -6.9469827413558960e-01 4.4278889894485474e-01</leafValues></_>
        <_>
          <internalNodes>
            0 -1 59 -252259116 1962737405 -1180978179 -16778273
            2011922421 2012720127 -139214849 -16385</internalNodes>
          <leafValues>
            -7.5756365060806274e-01 3.6803200840950012e-01</leafValues></_>
        <_>
          <internalNodes>
            0 -1 42 -18874501 -42205185 -1481474857 941678192 -616608932
            -10815620 -360911266 -296552605</internalNodes>
          <leafValues>
            -6.7414289712905884e-01 4.5408046245574951e-01</leafValues></_>
        <_>
          <internalNodes>
            0 -1 63 639647573 -1089544711 1610348029 -1074482725
            -1092616705 -17966083 -68224067 2138959621</internalNodes>
          <leafValues>
            -6.5455907583236694e-01 4.7807639837265015e-01</leafValues></_></weakClassifiers></_>
    <!-- stage 6 -->
    <_>
      <maxWeakCount>4</maxWeakCount>
      <stageThreshold>-1.6408958435058594e+00</stageThreshold>
      <weakClassifiers>
        <_>
          <internalNodes>
            0 -1 32 -285212673 -285212673 -69206193 -285212769
            -387973121 -288371201 -17 -1</internalNodes>
          <leafValues>
            -8.5336703062057495e-01 3.6866903305053711e-01</leafValues></_>
        <_>
          <internalNodes>
            0 -1 71 -939525121 -2142766145 -13643353 -285216209
            1261913344 16663 -1040779961 -201852929</internalNodes>
          <leafValues>
            -7.3009479045867920e-01 4.5347449183464050e-01</leafValues></_>
        <_>
          <internalNodes>
            0 -1 81 -73 -1873549545 -90213071 -755673118 -84673537
            -738202633 -742919245 -134742025</internalNodes>
          <leafValues>
            -6.1882662773132324e-01 5.8519893884658813e-01</leafValues></_>
        <_>
          <internalNodes>
            0 -1 43 -16777217 -84476929 -286376854 -520946961 -75507887
            2112223103 -1527384220 -185077777</internalNodes>
          <leafValues>
            -6.2217658758163452e-01 5.8036512136459351e-01</leafValues></_></weakClassifiers></_>
    <!-- stage 7 -->
    <_>
      <maxWeakCount>6</maxWeakCount>
      <stageThreshold>-1.6092133522033691e+00</stageThreshold>
      <weakClassifiers>
        <_>
          <internalNodes>
            0 -1 29 -268439553 -1 -67371009 -2561 -272646145 -1537 -1025
            -1</internalNodes>
          <leafValues>
            -8.0099719762802124e-01 5.0255537033081055e-01</leafValues></_>
        <_>
          <internalNodes>
            0 -1 95 -419434705 -5251105 -1996768769 -6145 -29430 -2065
            -1104204248 -1074790737</internalNodes>
          <leafValues>
            -6.4040005207061768e-01 4.2952072620391846e-01</leafValues></_>
        <_>
          <internalNodes>
            0 -1 14 -8193 -1560282113 -137363586 -1195639041 2119564627
            1410596863 -167772596 -33554437</internalNodes>
          <leafValues>
            -5.4090815782546997e-01 5.6743460893630981e-01</leafValues></_>
        <_>
          <internalNodes>
            0 -1 24 -2162689 -1073816066 -541097990 -1376326 497155191
            2013002683 -67141635 -720907</internalNodes>
          <leafValues>
            -5.7159858942031860e-01 5.2227574586868286e-01</leafValues></_>
        <_>
          <internalNodes>
            0 -1 0 607727471 -1360068609 -272633873 -822165505
            -205520897 -268698709 -131081 2147475455</internalNodes>
          <leafValues>
            -6.4624351263046265e-01 4.9370896816253662e-01</leafValues></_>
        <_>
          <internalNodes>
            0 -1 89 -1059065889 -1879048193 -1026040107 -419431723
            -520793603 -824316929 1291670869 -839007787</internalNodes>
          <leafValues>
            -6.1893916130065918e-01 5.3163516521453857e-01</leafValues></_></weakClassifiers></_>
    <!-- stage 8 -->
    <_>
      <maxWeakCount>5</maxWeakCount>
      <stageThreshold>-1.3586381673812866e+00</stageThreshold>
      <weakClassifiers>
        <_>
          <internalNodes>
            0 -1 77 -1073791209 -2105513 -6553601 -129 -1 -5378083
            -1441793 -1</internalNodes>
          <leafValues>
            -8.5151147842407227e-01 1.1361502110958099e-01</leafValues></_>
        <_>
          <internalNodes>
            0 -1 96 -1349525505 -537404449 -314840577 -18437 -69235252
            -1053893 -369305396 -17825813</internalNodes>
          <leafValues>
            -5.7545846700668335e-01 4.9737659096717834e-01</leafValues></_>
        <_>
          <internalNodes>
            0 -1 48 2077212659 999136735 -1700808037 992946743
            2103342007 1606384063 -19777 729754411</internalNodes>
          <leafValues>
            -7.4227428436279297e-01 3.3330583572387695e-01</leafValues></_>
        <_>
          <internalNodes>
            0 -1 23 -346030593 1426294133 -552928419 134354206 -12129418
            -6354659 -3150898 -859310881</internalNodes>
          <leafValues>
            -5.4965913295745850e-01 4.8911365866661072e-01</leafValues></_>
        <_>
          <internalNodes>
            0 -1 17 706744992 -540067934 -609232005 -34896 2024532475
            -350500935 -5406729 -572271243</internalNodes>
          <leafValues>
            -6.4363414049148560e-01 4.2700096964836121e-01</leafValues></_></weakClassifiers></_>
    <!-- stage 9 -->
    <_>
      <maxWeakCount>5</maxWeakCount>
      <stageThreshold>-2.1090388298034668e+00</stageThreshold>
      <weakClassifiers>
        <_>
          <internalNodes>
            0 -1 93 -129 -524417 -9217 -1025 -8329 -10707093 -1 -1</internalNodes>
          <leafValues>
            -8.1482326984405518e-01 2.1226993203163147e-01</leafValues></_>
        <_>
          <internalNodes>
            0 -1 21 -704650245 -103811169 -2147417982 -107618293
            2003300247 -217318417 -370178869 -8481</internalNodes>
          <leafValues>
            -5.7741659879684448e-01 4.6160921454429626e-01</leafValues></_>
        <_>
          <internalNodes>
            0 -1 97 -146806240 -1951875270 -1912619229 -1094713369
            -68174849 -4217153 -71320593 -1</internalNodes>
          <leafValues>
            -5.4417616128921509e-01 4.7715505957603455e-01</leafValues></_>
        <_>
          <internalNodes>
            0 -1 68 -75497505 -265263 -2132997 -1195757638 -1081688196
            -84416145 -34488462 -1440610016</internalNodes>
          <leafValues>
            -6.5484005212783813e-01 3.9783984422683716e-01</leafValues></_>
        <_>
          <internalNodes>
            0 -1 19 -328273929 265223165 -274727569 -537133573
            1157623807 1320812535 2009037127 -453513219</internalNodes>
          <leafValues>
            -5.7046270370483398e-01 4.2132526636123657e-01</leafValues></_></weakClassifiers></_>
    <!-- stage 10 -->
    <_>
      <maxWeakCount>6</maxWeakCount>
      <stageThreshold>-1.8122776746749878e+00</stageThreshold>
      <weakClassifiers>
        <_>
          <internalNodes>
            0 -1 92 -129 -11042953 -201596937 -8430761 -74450433
            -18350593 -339738625 -8388737</internalNodes>
          <leafValues>
            -7.9645818471908569e-01 2.0703653991222382e-01</leafValues></_>
        <_>
          <internalNodes>
            0 -1 33 -270012417 -286326834 -275490 -291866642 2072510335
            -1770517 -8405508 -570426369</internalNodes>
          <leafValues>
            -6.6413003206253052e-01 2.9759970307350159e-01</leafValues></_>
        <_>
          <internalNodes>
            0 -1 80 -453008188 1417079805 -134362668 -537469009
            -254020388 -55849986 -268464163 -4199681</internalNodes>
          <leafValues>
            -6.3081187009811401e-01 4.0205746889114380e-01</leafValues></_>
        <_>
          <internalNodes>
            0 -1 1 607669711 -285509801 -371261445 -269169313 -34604035
            -545383457 -100677121 2147483615</internalNodes>
          <leafValues>
            -5.7165718078613281e-01 4.1505682468414307e-01</leafValues></_>
        <_>
          <internalNodes>
            0 -1 55 2080352955 -547402517 1182511162 1532993786
            1976515387 -107439217 -610815462 -352345558</internalNodes>
          <leafValues>
            -5.3631651401519775e-01 4.7912985086441040e-01</leafValues></_>
        <_>
          <internalNodes>
            0 -1 27 -40372225 -2621633 1107992830 -521421313 2078225497
            -134536225 1089598826 -184647689</internalNodes>
          <leafValues>
            -5.9008002281188965e-01 4.1794511675834656e-01</leafValues></_></weakClassifiers></_>
    <!-- stage 11 -->
    <_>
      <maxWeakCount>5</maxWeakCount>
      <stageThreshold>-1.3429160118103027e+00</stageThreshold>
      <weakClassifiers>
        <_>
          <internalNodes>
            0 -1 70 -69206209 -8390785 -648019969 -9385 -285344001
            -2106657 -67108865 -1025</internalNodes>
          <leafValues>
            -7.9827743768692017e-01 1.5482233464717865e-01</leafValues></_>
        <_>
          <internalNodes>
            0 -1 37 -83890433 -413160705 -675159141 -1881731538
            -611614721 -7484673 -72418474 -45874</internalNodes>
          <leafValues>
            -6.0589832067489624e-01 3.0771392583847046e-01</leafValues></_>
        <_>
          <internalNodes>
            0 -1 54 -1359826953 -286266919 -589444129 -287376687
            -1879118337 -20193537 -303071371 -335545862</internalNodes>
          <leafValues>
            -5.1659458875656128e-01 4.3175911903381348e-01</leafValues></_>
        <_>
          <internalNodes>
            0 -1 60 -184683020 -1595541764 -113541379 -83923009
            602666996 832957149 -68441121 -102024273</internalNodes>
          <leafValues>
            -7.2885739803314209e-01 3.2541781663894653e-01</leafValues></_>
        <_>
          <internalNodes>
            0 -1 16 -291334232 1945100268 1607718111 -1574977 1399389132
            1701071562 -1094713873 2003038719</internalNodes>
          <leafValues>
            -5.5525416135787964e-01 4.1725969314575195e-01</leafValues></_></weakClassifiers></_>
    <!-- stage 12 -->
    <_>
      <maxWeakCount>7</maxWeakCount>
      <stageThreshold>-1.2891085147857666e+00</stageThreshold>
      <weakClassifiers>
        <_>
          <internalNodes>
            0 -1 28 -268435457 -6299809 -178266113 -17409 -1883505665
            -71836713 -268436993 -1</internalNodes>
          <leafValues>
            -7.6989996433258057e-01 2.3255814611911774e-01</leafValues></_>
        <_>
          <internalNodes>
            0 -1 61 -687943937 -270645505 -25281801 -1605641 1078725198
            -856176577 -1796329810 -4145</internalNodes>
          <leafValues>
            -5.6194162368774414e-01 3.8924768567085266e-01</leafValues></_>
        <_>
          <internalNodes>
            0 -1 99 -385880101 -469982273 -38031179 -2107216782 -8393765
            -1314825 1276448788 -788531971</internalNodes>
          <leafValues>
            -5.6738924980163574e-01 3.9868804812431335e-01</leafValues></_>
        <_>
          <internalNodes>
            0 -1 69 1917056861 1902073725 956398431 859518811 -1311811
            -271607057 2049344509 979089215</internalNodes>
          <leafValues>
            -5.0805467367172241e-01 4.3535453081130981e-01</leafValues></_>
        <_>
          <internalNodes>
            0 -1 58 -49951500 -797678799 -273696522 -176825355
            1467772925 -579028053 -204998305 -1077940737</internalNodes>
          <leafValues>
            -6.0457879304885864e-01 3.6403936147689819e-01</leafValues></_>
        <_>
          <internalNodes>
            0 -1 13 82641152 -2107973 -199759370 -1089473033 -1292601641
            -276040 -257885697 1958144507</internalNodes>
          <leafValues>
            -6.1689156293869019e-01 3.7058997154235840e-01</leafValues></_>
        <_>
          <internalNodes>
            0 -1 72 2144316415 626757883 -1039673413 -732437803
            -711074162 -644099909 1229274112 -849881377</internalNodes>
          <leafValues>
            -5.2356928586959839e-01 4.5335727930068970e-01</leafValues></_></weakClassifiers></_>
    <!-- stage 13 -->
    <_>
      <maxWeakCount>7</maxWeakCount>
      <stageThreshold>-2.1369860172271729e+00</stageThreshold>
      <weakClassifiers>
        <_>
          <internalNodes>
            0 -1 36 -6291457 -1118209 -673974273 -1114114 -538969601
            -67113057 -40109601 -1</internalNodes>
          <leafValues>
            -7.8060197830200195e-01 1.4125874638557434e-01</leafValues></_>
        <_>
          <internalNodes>
            0 -1 76 -1879593129 387301143 -549519873 2003925823 -7882369
            -573444625 -374087682 -101585921</internalNodes>
          <leafValues>
            -6.1974841356277466e-01 2.7394711971282959e-01</leafValues></_>
        <_>
          <internalNodes>
            0 -1 10 -84741134 -118041223 -2393633 -1143169767 2004122484
            1894777278 -67633899 -135141921</internalNodes>
          <leafValues>
            -6.5833288431167603e-01 2.8248620033264160e-01</leafValues></_>
        <_>
          <internalNodes>
            0 -1 44 -4194385 -1436550273 -1680410789 570620843 -9699506
            -545268737 -592512514 -264110257</internalNodes>
          <leafValues>
            -5.7105952501296997e-01 3.5210570693016052e-01</leafValues></_>
        <_>
          <internalNodes>
            0 -1 75 -325 -1074921473 -82053 -33571714 -589825 -50331777
            -5900133 -1464655840</internalNodes>
          <leafValues>
            -4.5807516574859619e-01 4.8095619678497314e-01</leafValues></_>
        <_>
          <internalNodes>
            0 -1 103 1822373643 -2098273 -134365377 -9281 -548536489
            -612732965 -3146924 2147475423</internalNodes>
          <leafValues>
            -4.9667736887931824e-01 4.3430596590042114e-01</leafValues></_>
        <_>
          <internalNodes>
            0 -1 39 -289476897 -536875041 -285299153 -1074892865
            -302027020 1610579967 -2142500 -19927363</internalNodes>
          <leafValues>
            -4.2429313063621521e-01 5.3935635089874268e-01</leafValues></_></weakClassifiers></_>
    <!-- stage 14 -->
    <_>
      <maxWeakCount>5</maxWeakCount>
      <stageThreshold>-1.4544444084167480e+00</stageThreshold>
      <weakClassifiers>
        <_>
          <internalNodes>
            0 -1 47 -21037089 -77321 -12757059 -33640039 1067185147
            -285729 1543239694 -321</internalNodes>
          <leafValues>
            -8.3720308542251587e-01 -1.8100482225418091e-01</leafValues></_>
        <_>
          <internalNodes>
            0 -1 79 -156499973 -863324641 -102762465 -24920085
            1039896027 -1140482725 530535955 -15469801</internalNodes>
          <leafValues>
            -5.8369040489196777e-01 2.8398850560188293e-01</leafValues></_>
        <_>
          <internalNodes>
            0 -1 85 -44908552 471921916 -214258699 -281479715 -660299020
            -79894225 -231542529 -67372049</internalNodes>
          <leafValues>
            -6.8129706382751465e-01 2.9074341058731079e-01</leafValues></_>
        <_>
          <internalNodes>
            0 -1 74 1473570812 -50564102 -15272995 -268503234 -17826063
            -68748375 1773912059 -272629761</internalNodes>
          <leafValues>
            -4.8131120204925537e-01 4.2666453123092651e-01</leafValues></_>
        <_>
          <internalNodes>
            0 -1 5 -1347489801 -285540433 -1359028484 -28647468
            1068496895 -1073742851 -34079245 -352322140</internalNodes>
          <leafValues>
            -3.9481985569000244e-01 5.3019165992736816e-01</leafValues></_></weakClassifiers></_>
    <!-- stage 15 -->
    <_>
      <maxWeakCount>7</maxWeakCount>
      <stageThreshold>-2.1117122173309326e+00</stageThreshold>
      <weakClassifiers>
        <_>
          <internalNodes>
            0 -1 57 -41963521 -136585769 -136897873 -2643057 -168558593
            -15508545 -1331281 -28786</internalNodes>
          <leafValues>
            -7.9816955327987671e-01 -8.2061067223548889e-02</leafValues></_>
        <_>
          <internalNodes>
            0 -1 84 754650999 -1107379713 -1191313413 -67109761
            -69206523 -2901843 -5833866 -25433093</internalNodes>
          <leafValues>
            -6.7814987897872925e-01 2.2975349426269531e-01</leafValues></_>
        <_>
          <internalNodes>
            0 -1 90 -1968179549 539151292 -838862729 -537986083
            -1414547665 -1427121265 1945621951 -318768661</internalNodes>
          <leafValues>
            -4.3208163976669312e-01 4.3865251541137695e-01</leafValues></_>
        <_>
          <internalNodes>
            0 -1 25 -268436481 583000135 -720373778 -1900042677
            2076176319 1332893958 -335806484 -286072889</internalNodes>
          <leafValues>
            -4.8241508007049561e-01 4.0999951958656311e-01</leafValues></_>
        <_>
          <internalNodes>
            0 -1 12 1086857248 -274525212 -552316775 -1312684 -242245413
            -1075213971 -1811166477 -549719822</internalNodes>
          <leafValues>
            -5.1896977424621582e-01 3.8782218098640442e-01</leafValues></_>
        <_>
          <internalNodes>
            0 -1 102 1286039223 1156446787 1928196199 -679353605
            1148536165 -768095437 -459184875 -243935289</internalNodes>
          <leafValues>
            -6.1095845699310303e-01 3.1411448121070862e-01</leafValues></_>
        <_>
          <internalNodes>
            0 -1 51 -16777537 -21 -352665934 -251987205 -688498577
            -671776769 -520323894 -263185</internalNodes>
          <leafValues>
            -4.2186328768730164e-01 4.8395916819572449e-01</leafValues></_></weakClassifiers></_>
    <!-- stage 16 -->
    <_>
      <maxWeakCount>7</maxWeakCount>
      <stageThreshold>-1.5745640993118286e+00</stageThreshold>
      <weakClassifiers>
        <_>
          <internalNodes>
            0 -1 88 -538968141 -68749917 1359862129 -143134063
            -941769729 -68429321 -39587077 -1025</internalNodes>
          <leafValues>
            -7.7389329671859741e-01 1.1320754885673523e-02</leafValues></_>
        <_>
          <internalNodes>
            0 -1 78 -1426156043 -2896425 -1079378435 -1644635
            -1359238147 -89423731 -337679620 -1315857</internalNodes>
          <leafValues>
            -6.1320757865905762e-01 2.6003742218017578e-01</leafValues></_>
        <_>
          <internalNodes>
            0 -1 49 -328208 1896928148 -244780075 -41813037 1964262708
            -115122457 -859540730 -3126</internalNodes>
          <leafValues>
            -7.0522075891494751e-01 2.5429844856262207e-01</leafValues></_>
        <_>
          <internalNodes>
            0 -1 22 -269485121 184024062 -244333649 -318767205
            2130706423 73611774 -505431105 -1065880649</internalNodes>
          <leafValues>
            -5.6655019521713257e-01 3.3414229750633240e-01</leafValues></_>
        <_>
          <internalNodes>
            0 -1 100 -1364227701 -1400236246 -686165515 -313458964
            731322939 598370735 264752107 -1066666061</internalNodes>
          <leafValues>
            -4.5277789235115051e-01 4.3533632159233093e-01</leafValues></_>
        <_>
          <internalNodes>
            0 -1 91 1618145794 2012872575 -1158959105 -553651329 -9510
            -32898 -352589862 -1426065730</internalNodes>
          <leafValues>
            -4.2806503176689148e-01 4.4606885313987732e-01</leafValues></_>
        <_>
          <internalNodes>
            0 -1 57 -42750017 1981126751 -711513938 1039573390
            -2080261121 -115016165 -98594898 757662728</internalNodes>
          <leafValues>
            -6.7034250497817993e-01 3.0986356735229492e-01</leafValues></_></weakClassifiers></_>
    <!-- stage 17 -->
    <_>
      <maxWeakCount>7</maxWeakCount>
      <stageThreshold>-1.2675904035568237e+00</stageThreshold>
      <weakClassifiers>
        <_>
          <internalNodes>
            0 -1 66 1561681407 -42528393 -2056032037 -45100625
            -104113505 -371201893 -1411391745 -13632465</internalNodes>
          <leafValues>
            -7.5589519739151001e-01 1.0000000149011612e-01</leafValues></_>
        <_>
          <internalNodes>
            0 -1 35 -206882309 -202694597 1082819203 -1073589565
            1946657563 -2094825341 -1187315493 -536895341</internalNodes>
          <leafValues>
            -5.0409352779388428e-01 3.8834249973297119e-01</leafValues></_>
        <_>
          <internalNodes>
            0 -1 62 -230499589 1530568399 1583010270 -619519409
            1243533966 -88299125 -87375890 -91041941</internalNodes>
          <leafValues>
            -4.7122457623481750e-01 4.3409579992294312e-01</leafValues></_>
        <_>
          <internalNodes>
            0 -1 87 -796852992 1141158708 -82606601 -1416191124
            1351973357 -1149140767 1923087103 -1179934471</internalNodes>
          <leafValues>
            -6.8211388587951660e-01 2.9533195495605469e-01</leafValues></_>
        <_>
          <internalNodes>
            0 -1 2 50866596 2108331041 -777682478 -12988012 -308141843
            -24276846 -1602180101 1337981061</internalNodes>
          <leafValues>
            -5.0715428590774536e-01 4.3825188279151917e-01</leafValues></_>
        <_>
          <internalNodes>
            0 -1 94 966751561 -142356479 495813851 2132889658 -120614080
            -22299871 -326972879 -39855649</internalNodes>
          <leafValues>
            -5.9921598434448242e-01 4.0921804308891296e-01</leafValues></_>
        <_>
          <internalNodes>
            0 -1 45 -25310554 -342687475 1879169242 2106826231
            -1047976704 1518954755 -89994242 -437562369</internalNodes>
          <leafValues>
            -5.1691520214080811e-01 4.1426488757133484e-01</leafValues></_></weakClassifiers></_>
    <!-- stage 18 -->
    <_>
      <maxWeakCount>7</maxWeakCount>
      <stageThreshold>-2.0926218032836914e+00</stageThreshold>
      <weakClassifiers>
        <_>
          <internalNodes>
            0 -1 61 -215220549 -687643803 -268369445 -720112333
            -2141601109 -895504381 -33373185 -604250433</internalNodes>
          <leafValues>
            -7.6152694225311279e-01 2.8119179606437683e-01</leafValues></_>
        <_>
          <internalNodes>
            0 -1 101 -574168821 -1877466923 143769689 -721010685
            412421927 539395080 -335287155 -114572917</internalNodes>
          <leafValues>
            -5.6321930885314941e-01 3.1991878151893616e-01</leafValues></_>
        <_>
          <internalNodes>
            0 -1 7 67966230 -452665331 -754908681 -1208892586
            -1459564323 -636387326 -578714497 2040109508</internalNodes>
          <leafValues>
            -5.7066452503204346e-01 3.6533954739570618e-01</leafValues></_>
        <_>
          <internalNodes>
            0 -1 38 -788425249 219201620 1426343321 -1526427645
            -787476229 104890496 978332425 618512395</internalNodes>
          <leafValues>
            -5.8384692668914795e-01 3.7548416852951050e-01</leafValues></_>
        <_>
          <internalNodes>
            0 -1 34 -694485 -961311064 -131509 -737538016 2138963837
            -8978441 -9044389 -15739069</internalNodes>
          <leafValues>
            -4.3951007723808289e-01 5.4109042882919312e-01</leafValues></_>
        <_>
          <internalNodes>
            0 -1 82 267046 -2137763454 1074364445 -1599604351 17239942
            -1944711158 42533533 -664559830</internalNodes>
          <leafValues>
            -5.8290475606918335e-01 4.0510299801826477e-01</leafValues></_>
        <_>
          <internalNodes>
            0 -1 52 -648494770 -324976608 -2144337503 1405176065
            -2121102079 -660471278 -2139092661 -343166077</internalNodes>
          <leafValues>
            -5.5377978086471558e-01 4.4971966743469238e-01</leafValues></_></weakClassifiers></_>
    <!-- stage 19 -->
    <_>
      <maxWeakCount>7</maxWeakCount>
      <stageThreshold>-1.6926530599594116e+00</stageThreshold>
      <weakClassifiers>
        <_>
          <internalNodes>
            0 -1 15 -780107533 1410601257 1426252045 -1319825265
            -2112831310 -1668118144 -922318673 -345253081</internalNodes>
          <leafValues>
            -7.7350515127182007e-01 5.5888652801513672e-01</leafValues></_>
        <_>
          <internalNodes>
            0 -1 81 1632047311 101466139 122693937 -787937145 -366968689
            -1366687608 -2118086413 -1551661902</internalNodes>
          <leafValues>
            -6.3200038671493530e-01 3.7294033169746399e-01</leafValues></_>
        <_>
          <internalNodes>
            0 -1 28 -434646251 1364525184 16777604 891356305 134754443
            -2012115966 704735232 -923742069</internalNodes>
          <leafValues>
            -5.3452742099761963e-01 5.0686800479888916e-01</leafValues></_>
        <_>
          <internalNodes>
            0 -1 6 -415519217 -152817793 1048574716 -357634322
            1870613965 -310972417 251455471 -4259852</internalNodes>
          <leafValues>
            -4.2844781279563904e-01 6.1639797687530518e-01</leafValues></_>
        <_>
          <internalNodes>
            0 -1 73 -128484137 1349451637 -1126916251 1090354772
            -863998244 -408944641 811614020 -29884637</internalNodes>
          <leafValues>
            -3.8514506816864014e-01 7.0686781406402588e-01</leafValues></_>
        <_>
          <internalNodes>
            0 -1 46 -348874847 -5637143 -33570841 -1277100171
            -1124147461 -268533826 -840435785 -840643499</internalNodes>
          <leafValues>
            -4.0346983075141907e-01 7.0686525106430054e-01</leafValues></_>
        <_>
          <internalNodes>
            0 -1 41 -2105274010 -1206910974 889491897 1078984848 5243017
            -2122186752 -1207957501 -2088722432</internalNodes>
          <leafValues>
            -6.7054718732833862e-01 4.5950192213058472e-01</leafValues></_></weakClassifiers></_></stages>
  <features>
    <_>
      <rect>
        0 0 1 1</rect></_>
    <_>
      <rect>
        0 0 2 1</rect></_>
    <_>
      <rect>
        0 0 5 1</rect></_>
    <_>
      <rect>
        0 0 8 2</rect></_>
    <_>
      <rect>
        0 9 8 5</rect></_>
    <_>
      <rect>
        0 18 1 2</rect></_>
    <_>
      <rect>
        0 21 1 1</rect></_>
    <_>
      <rect>
        1 0 2 1</rect></_>
    <_>
      <rect>
        2 8 7 2</rect></_>
    <_>
      <rect>
        2 10 7 2</rect></_>
    <_>
      <rect>
        2 11 5 1</rect></_>
    <_>
      <rect>
        2 11 7 4</rect></_>
    <_>
      <rect>
        3 0 2 3</rect></_>
    <_>
      <rect>
        3 0 7 1</rect></_>
    <_>
      <rect>
        3 9 3 3</rect></_>
    <_>
      <rect>
        4 14 5 3</rect></_>
    <_>
      <rect>
        4 18 6 2</rect></_>
    <_>
      <rect>
        6 0 2 2</rect></_>
    <_>
      <rect>
        6 4 2 2</rect></_>
    <_>
      <rect>
        6 5 2 1</rect></_>
    <_>
      <rect>
        6 5 4 2</rect></_>
    <_>
      <rect>
        6 6 4 6</rect></_>
    <_>
      <rect>
        6 7 1 1</rect></_>
    <_>
      <rect>
        6 8 2 5</rect></_>
    <_>
      <rect>
        6 8 3 1</rect></_>
    <_>
      <rect>
        6 9 1 1</rect></_>
    <_>
      <rect>
        6 10 2 2</rect></_>
    <_>
      <rect>
        6 15 2 1</rect></_>
    <_>
      <rect>
        7 4 1 2</rect></_>
    <_>
      <rect>
        7 5 2 1</rect></_>
    <_>
      <rect>
        7 5 2 2</rect></_>
    <_>
      <rect>
        7 5 3 2</rect></_>
    <_>
      <rect>
        7 6 1 1</rect></_>
    <_>
      <rect>
        7 7 1 1</rect></_>
    <_>
      <rect>
        7 7 2 5</rect></_>
    <_>
      <rect>
        7 7 3 5</rect></_>
    <_>
      <rect>
        7 8 1 1</rect></_>
    <_>
      <rect>
        7 8 1 2</rect></_>
    <_>
      <rect>
        7 9 5 1</rect></_>
    <_>
      <rect>
        7 10 1 1</rect></_>
    <_>
      <rect>
        7 11 1 1</rect></_>
    <_>
      <rect>
        7 11 3 1</rect></_>
    <_>
      <rect>
        7 12 1 2</rect></_>
    <_>
      <rect>
        7 14 1 1</rect></_>
    <_>
      <rect>
        7 15 1 1</rect></_>
    <_>
      <rect>
        7 18 2 1</rect></_>
    <_>
      <rect>
        8 2 2 1</rect></_>
    <_>
      <rect>
        8 5 1 2</rect></_>
    <_>
      <rect>
        8 8 2 2</rect></_>
    <_>
      <rect>
        8 9 1 3</rect></_>
    <_>
      <rect>
        8 10 1 2</rect></_>
    <_>
      <rect>
        8 15 1 1</rect></_>
    <_>
      <rect>
        8 15 3 1</rect></_>
    <_>
      <rect>
        8 16 1 1</rect></_>
    <_>
      <rect>
        9 5 1 1</rect></_>
    <_>
      <rect>
        9 6 2 3</rect></_>
    <_>
      <rect>
        9 8 2 2</rect></_>
    <_>
      <rect>
        9 9 2 1</rect></_>
    <_>
      <rect>
        9 10 1 2</rect></_>
    <_>
      <rect>
        9 10 3 2</rect></_>
    <_>
      <rect>
        9 10 4 2</rect></_>
    <_>
      <rect>
        9 15 1 1</rect></_>
    <_>
      <rect>
        9 16 1 1</rect></_>
    <_>
      <rect>
        10 0 1 1</rect></_>
    <_>
      <rect>
        10 4 3 2</rect></_>
    <_>
      <rect>
        10 8 2 2</rect></_>
    <_>
      <rect>
        10 12 2 2</rect></_>
    <_>
      <rect>
        10 16 1 1</rect></_>
    <_>
      <rect>
        10 17 1 1</rect></_>
    <_>
      <rect>
        11 0 3 4</rect></_>
    <_>
      <rect>
        11 5 2 1</rect></_>
    <_>
      <rect>
        11 6 4 5</rect></_>
    <_>
      <rect>
        11 7 2 3</rect></_>
    <_>
      <rect>
        11 9 1 3</rect></_>
    <_>
      <rect>
        11 16 1 1</rect></_>
    <_>
      <rect>
        11 17 1 1</rect></_>
    <_>
      <rect>
        12 4 2 2</rect></_>
    <_>
      <rect>
        12 5 1 1</rect></_>
    <_>
      <rect>
        12 5 1 2</rect></_>
    <_>
      <rect>
        12 10 3 4</rect></_>
    <_>
      <rect>
        12 11 2 1</rect></_>
    <_>
      <rect>
        12 15 2 1</rect></_>
    <_>
      <rect>
        12 19 1 1</rect></_>
    <_>
      <rect>
        13 5 1 2</rect></_>
    <_>
      <rect>
        13 6 1 1</rect></_>
    <_>
      <rect>
        13 9 1 3</rect></_>
    <_>
      <rect>
        13 10 1 2</rect></_>
    <_>
      <rect>
        13 11 1 1</rect></_>
    <_>
      <rect>
        13 15 1 1</rect></_>
    <_>
      <rect>
        13 16 1 1</rect></_>
    <_>
      <rect>
        13 18 1 1</rect></_>
    <_>
      <rect>
        14 0 3 3</rect></_>
    <_>
      <rect>
        14 4 1 2</rect></_>
    <_>
      <rect>
        14 6 1 1</rect></_>
    <_>
      <rect>
        14 7 1 1</rect></_>
    <_>
      <rect>
        14 7 1 2</rect></_>
    <_>
      <rect>
        14 8 1 1</rect></_>
    <_>
      <rect>
        14 10 1 1</rect></_>
    <_>
      <rect>
        14 10 1 2</rect></_>
    <_>
      <rect>
        14 15 1 1</rect></_>
    <_>
      <rect>
        14 17 1 1</rect></_>
    <_>
      <rect>
        15 9 1 1</rect></_>
    <_>
      <rect>
        15 10 1 2</rect></_>
    <_>
      <rect>
        21 0 1 1</rect></_></features></cascade>
</opencv_storage>
